|---   |-----| |\    / |-----  |
|   \  |     | | \   / |       |
|    | |     | |  \  / |-----  |
|   /  |     | |   \ / |       |
|---   |-----| |    \/ |-----  .

Congratulation on Defeating the Final Boss!
Your Quest is Complete Hero
*You Recieved... A 100 on the Final Project!!!
